<?xml version='1.0' encoding='utf-8'?>
<BIF VERSION="0.3">
  <NETWORK>
    <NAME>UNTITLED</NAME>
    <VARIABLE TYPE="nature">
      <NAME>cole_area_ubicacion</NAME>
      <OUTCOME>RURAL</OUTCOME>
      <OUTCOME>URBANO</OUTCOME>
      <PROPERTY>weight = None</PROPERTY>
    </VARIABLE>
    <VARIABLE TYPE="nature">
      <NAME>cole_bilingue</NAME>
      <OUTCOME>N</OUTCOME>
      <OUTCOME>S</OUTCOME>
      <PROPERTY>weight = None</PROPERTY>
    </VARIABLE>
    <VARIABLE TYPE="nature">
      <NAME>cole_calendario</NAME>
      <OUTCOME>A</OUTCOME>
      <OUTCOME>B</OUTCOME>
      <OUTCOME>OTRO</OUTCOME>
      <PROPERTY>weight = None</PROPERTY>
    </VARIABLE>
    <VARIABLE TYPE="nature">
      <NAME>cole_caracter</NAME>
      <OUTCOME>ACAD_MICO</OUTCOME>
      <OUTCOME>T_CNICO</OUTCOME>
      <OUTCOME>T_CNICO_ACAD_MICO</OUTCOME>
      <PROPERTY>weight = None</PROPERTY>
    </VARIABLE>
    <VARIABLE TYPE="nature">
      <NAME>cole_genero</NAME>
      <OUTCOME>FEMENINO</OUTCOME>
      <OUTCOME>MASCULINO</OUTCOME>
      <OUTCOME>MIXTO</OUTCOME>
      <PROPERTY>weight = None</PROPERTY>
    </VARIABLE>
    <VARIABLE TYPE="nature">
      <NAME>cole_jornada</NAME>
      <OUTCOME>COMPLETA</OUTCOME>
      <OUTCOME>MA_ANA</OUTCOME>
      <OUTCOME>NOCHE</OUTCOME>
      <OUTCOME>SABATINA</OUTCOME>
      <OUTCOME>TARDE</OUTCOME>
      <PROPERTY>weight = None</PROPERTY>
    </VARIABLE>
    <VARIABLE TYPE="nature">
      <NAME>cole_naturaleza</NAME>
      <OUTCOME>NO_OFICIAL</OUTCOME>
      <OUTCOME>OFICIAL</OUTCOME>
      <PROPERTY>weight = None</PROPERTY>
    </VARIABLE>
    <VARIABLE TYPE="nature">
      <NAME>estu_genero</NAME>
      <OUTCOME>F</OUTCOME>
      <OUTCOME>M</OUTCOME>
      <PROPERTY>weight = None</PROPERTY>
    </VARIABLE>
    <VARIABLE TYPE="nature">
      <NAME>fami_cuartoshogar</NAME>
      <OUTCOME>Cinco</OUTCOME>
      <OUTCOME>Cuatro</OUTCOME>
      <OUTCOME>Diez_o_m_s</OUTCOME>
      <OUTCOME>Dos</OUTCOME>
      <OUTCOME>Nueve</OUTCOME>
      <OUTCOME>Ocho</OUTCOME>
      <OUTCOME>Seis</OUTCOME>
      <OUTCOME>Siete</OUTCOME>
      <OUTCOME>Tres</OUTCOME>
      <OUTCOME>Uno</OUTCOME>
      <PROPERTY>weight = None</PROPERTY>
    </VARIABLE>
    <VARIABLE TYPE="nature">
      <NAME>fami_educacionmadre</NAME>
      <OUTCOME>Educaci_n_profesional_completa</OUTCOME>
      <OUTCOME>Educaci_n_profesional_incompleta</OUTCOME>
      <OUTCOME>Ninguno</OUTCOME>
      <OUTCOME>No_sabe</OUTCOME>
      <OUTCOME>Postgrado</OUTCOME>
      <OUTCOME>Primaria_completa</OUTCOME>
      <OUTCOME>Primaria_incompleta</OUTCOME>
      <OUTCOME>Secundaria_Bachillerato_completa</OUTCOME>
      <OUTCOME>Secundaria_Bachillerato_incompleta</OUTCOME>
      <OUTCOME>T_cnica_o_tecnol_gica_completa</OUTCOME>
      <OUTCOME>T_cnica_o_tecnol_gica_incompleta</OUTCOME>
      <PROPERTY>weight = None</PROPERTY>
    </VARIABLE>
    <VARIABLE TYPE="nature">
      <NAME>fami_educacionpadre</NAME>
      <OUTCOME>Educaci_n_profesional_completa</OUTCOME>
      <OUTCOME>Educaci_n_profesional_incompleta</OUTCOME>
      <OUTCOME>Ninguno</OUTCOME>
      <OUTCOME>No_sabe</OUTCOME>
      <OUTCOME>Postgrado</OUTCOME>
      <OUTCOME>Primaria_completa</OUTCOME>
      <OUTCOME>Primaria_incompleta</OUTCOME>
      <OUTCOME>Secundaria_Bachillerato_completa</OUTCOME>
      <OUTCOME>Secundaria_Bachillerato_incompleta</OUTCOME>
      <OUTCOME>T_cnica_o_tecnol_gica_completa</OUTCOME>
      <OUTCOME>T_cnica_o_tecnol_gica_incompleta</OUTCOME>
      <PROPERTY>weight = None</PROPERTY>
    </VARIABLE>
    <VARIABLE TYPE="nature">
      <NAME>fami_estratovivienda</NAME>
      <OUTCOME>Estrato_1</OUTCOME>
      <OUTCOME>Estrato_2</OUTCOME>
      <OUTCOME>Estrato_3</OUTCOME>
      <OUTCOME>Estrato_4</OUTCOME>
      <OUTCOME>Estrato_5</OUTCOME>
      <OUTCOME>Estrato_6</OUTCOME>
      <PROPERTY>weight = None</PROPERTY>
    </VARIABLE>
    <VARIABLE TYPE="nature">
      <NAME>fami_personashogar</NAME>
      <OUTCOME>Cinco</OUTCOME>
      <OUTCOME>Cuatro</OUTCOME>
      <OUTCOME>Diez</OUTCOME>
      <OUTCOME>Doce_o_m_s</OUTCOME>
      <OUTCOME>Dos</OUTCOME>
      <OUTCOME>Nueve</OUTCOME>
      <OUTCOME>Ocho</OUTCOME>
      <OUTCOME>Once</OUTCOME>
      <OUTCOME>Seis</OUTCOME>
      <OUTCOME>Siete</OUTCOME>
      <OUTCOME>Tres</OUTCOME>
      <OUTCOME>Una</OUTCOME>
      <PROPERTY>weight = None</PROPERTY>
    </VARIABLE>
    <VARIABLE TYPE="nature">
      <NAME>fami_tieneautomovil</NAME>
      <OUTCOME>No</OUTCOME>
      <OUTCOME>Si</OUTCOME>
      <PROPERTY>weight = None</PROPERTY>
    </VARIABLE>
    <VARIABLE TYPE="nature">
      <NAME>fami_tienecomputador</NAME>
      <OUTCOME>No</OUTCOME>
      <OUTCOME>Si</OUTCOME>
      <PROPERTY>weight = None</PROPERTY>
    </VARIABLE>
    <VARIABLE TYPE="nature">
      <NAME>fami_tieneinternet</NAME>
      <OUTCOME>No</OUTCOME>
      <OUTCOME>Si</OUTCOME>
      <PROPERTY>weight = None</PROPERTY>
    </VARIABLE>
    <VARIABLE TYPE="nature">
      <NAME>fami_tienelavadora</NAME>
      <OUTCOME>No</OUTCOME>
      <OUTCOME>Si</OUTCOME>
      <PROPERTY>weight = None</PROPERTY>
    </VARIABLE>
    <VARIABLE TYPE="nature">
      <NAME>global</NAME>
      <OUTCOME>0_25_</OUTCOME>
      <OUTCOME>25_50_</OUTCOME>
      <OUTCOME>50_75_</OUTCOME>
      <OUTCOME>75_100_</OUTCOME>
      <PROPERTY>weight = None</PROPERTY>
    </VARIABLE>
    <DEFINITION>
      <FOR>cole_area_ubicacion</FOR>
      <GIVEN>cole_caracter</GIVEN>
      <GIVEN>cole_jornada</GIVEN>
      <GIVEN>cole_naturaleza</GIVEN>
      <TABLE>0.5676855895196506 0.43231441048034935 0.09044715447154472 0.9095528455284553 0.20420888542478566 0.7957911145752143 0.20264452644526446 0.7973554735547356 0.0 1.0 0.004878048780487805 0.9951219512195122 0.0 1.0 0.5499124343257443 0.4500875656742557 0.3787878787878788 0.6212121212121212 0.0 1.0 0.5594405594405595 0.4405594405594406 0.35092348284960423 0.6490765171503958 0.0 1.0 0.16306156405990016 0.8369384359400999 0.5 0.5 0.0 1.0 0.5 0.5 0.3673469387755102 0.6326530612244898 0.5 0.5 0.5 0.5 0.5 0.5 0.28665568369028005 0.71334431630972 0.0 1.0 0.11476293103448276 0.8852370689655172 0.5 0.5 0.21635883905013192 0.783641160949868 0.5 0.5 0.300709219858156 0.699290780141844 0.5 0.5 0.08287795992714025 0.9171220400728597 </TABLE>
    </DEFINITION>
    <DEFINITION>
      <FOR>cole_bilingue</FOR>
      <GIVEN>cole_calendario</GIVEN>
      <TABLE>0.973588193650275 0.02641180634972499 0.0 1.0 1.0 0.0 </TABLE>
    </DEFINITION>
    <DEFINITION>
      <FOR>cole_calendario</FOR>
      <TABLE>0.9826617434580189 0.011344785144753037 0.00599347139722802 </TABLE>
    </DEFINITION>
    <DEFINITION>
      <FOR>cole_caracter</FOR>
      <GIVEN>cole_bilingue</GIVEN>
      <GIVEN>cole_jornada</GIVEN>
      <GIVEN>cole_naturaleza</GIVEN>
      <TABLE>0.7686084142394822 0.2313915857605178 0.0 0.4165680473372781 0.2242603550295858 0.3591715976331361 0.851925630810093 0.06640106241699867 0.08167330677290836 0.35263500325309044 0.2606809802645847 0.38668401648232487 1.0 0.0 0.0 0.7093425605536332 0.01384083044982699 0.2768166089965398 1.0 0.0 0.0 0.4155749636098981 0.07132459970887918 0.5131004366812227 1.0 0.0 0.0 0.41126005361930296 0.0 0.588739946380697 1.0 0.0 0.0 1.0 0.0 0.0 0.3333333333333333 0.3333333333333333 0.3333333333333333 0.0 0.0 1.0 0.3333333333333333 0.3333333333333333 0.3333333333333333 0.0 0.0 1.0 0.3333333333333333 0.3333333333333333 0.3333333333333333 0.3333333333333333 0.3333333333333333 0.3333333333333333 0.3333333333333333 0.3333333333333333 0.3333333333333333 0.3333333333333333 0.3333333333333333 0.3333333333333333 </TABLE>
    </DEFINITION>
    <DEFINITION>
      <FOR>cole_genero</FOR>
      <GIVEN>cole_caracter</GIVEN>
      <GIVEN>cole_naturaleza</GIVEN>
      <GIVEN>estu_genero</GIVEN>
      <TABLE>0.09538950715421304 0.05087440381558029 0.8537360890302067 0.0 0.12195121951219512 0.8780487804878049 0.07673060884070058 0.0 0.9232693911592994 0.0 0.0 1.0 0.7044334975369458 0.0 0.2955665024630542 0.0 0.0 1.0 0.3021671826625387 0.0 0.6978328173374613 0.0 0.0 1.0 0.0 0.0 1.0 0.0 0.0 1.0 0.031839954916877994 0.0 0.968160045083122 0.0 0.0 1.0 </TABLE>
    </DEFINITION>
    <DEFINITION>
      <FOR>cole_jornada</FOR>
      <GIVEN>cole_bilingue</GIVEN>
      <GIVEN>cole_calendario</GIVEN>
      <GIVEN>cole_naturaleza</GIVEN>
      <TABLE>0.24037339556592766 0.5857642940490082 0.043173862310385065 0.10501750291715285 0.025670945157526253 0.11040700333180897 0.6024694584177174 0.07552100346246815 0.08976285359639381 0.12183968119161168 0.2 0.2 0.2 0.2 0.2 0.2 0.2 0.2 0.2 0.2 0.0 0.0 1.0 0.0 0.0 0.2 0.2 0.2 0.2 0.2 0.2 0.2 0.2 0.2 0.2 0.5773195876288659 0.30103092783505153 0.12164948453608247 0.0 0.0 1.0 0.0 0.0 0.0 0.0 0.2 0.2 0.2 0.2 0.2 0.2 0.2 0.2 0.2 0.2 0.2 0.2 0.2 0.2 0.2 </TABLE>
    </DEFINITION>
    <DEFINITION>
      <FOR>cole_naturaleza</FOR>
      <GIVEN>cole_bilingue</GIVEN>
      <GIVEN>cole_calendario</GIVEN>
      <TABLE>0.14380803221836894 0.8561919677816311 0.5 0.5 1.0 0.0 0.0 1.0 1.0 0.0 0.5 0.5 </TABLE>
    </DEFINITION>
    <DEFINITION>
      <FOR>estu_genero</FOR>
      <TABLE>0.5506501846203243 0.4493498153796757 </TABLE>
    </DEFINITION>
    <DEFINITION>
      <FOR>fami_cuartoshogar</FOR>
      <TABLE>0.03863648525713063 0.14667950981966071 0.0006421576497030021 0.34537378926526463 0.0005886445122277519 0.0011772890244555038 0.011023706319901535 0.004334564135495264 0.42237919409214963 0.029164659924011346 </TABLE>
    </DEFINITION>
    <DEFINITION>
      <FOR>fami_educacionmadre</FOR>
      <GIVEN>fami_estratovivienda</GIVEN>
      <GIVEN>fami_tieneautomovil</GIVEN>
      <GIVEN>fami_tieneinternet</GIVEN>
      <TABLE>0.006209503239740821 0.0026997840172786176 0.041576673866090715 0.04508639308855292 0.0005399568034557236 0.24487041036717064 0.33180345572354214 0.15064794816414687 0.15712742980561556 0.014308855291576673 0.0051295896328293735 0.016080402010050253 0.004522613065326633 0.019597989949748745 0.021608040201005024 0.0 0.18090452261306533 0.20301507537688443 0.28442211055276384 0.21658291457286433 0.04020100502512563 0.01306532663316583 0.025252525252525252 0.0 0.015151515151515152 0.015151515151515152 0.0 0.20202020202020202 0.29292929292929293 0.18686868686868688 0.2222222222222222 0.03535353535353535 0.005050505050505051 0.04560260586319218 0.009771986970684038 0.019543973941368076 0.009771986970684038 0.02280130293159609 0.14332247557003258 0.14006514657980457 0.3322475570032573 0.19218241042345277 0.06188925081433225 0.02280130293159609 0.012550607287449392 0.004858299595141701 0.03076923076923077 0.01700404858299595 0.0012145748987854252 0.22348178137651822 0.24817813765182187 0.2230769230769231 0.1951417004048583 0.032388663967611336 0.011336032388663968 0.041209605692262084 0.011562407352505188 0.014823599169878446 0.014823599169878446 0.0035576638007708272 0.13904536021345984 0.12837236881114736 0.35339460420990215 0.19389267714201008 0.07411799584939223 0.02520011858879336 0.07582938388625593 0.014218009478672985 0.014218009478672985 0.009478672985781991 0.004739336492890996 0.1990521327014218 0.1848341232227488 0.25118483412322273 0.1943127962085308 0.037914691943127965 0.014218009478672985 0.11170212765957446 0.018085106382978722 0.005319148936170213 0.007446808510638298 0.01702127659574468 0.09787234042553192 0.07446808510638298 0.3797872340425532 0.1702127659574468 0.09042553191489362 0.027659574468085105 0.047516198704103674 0.017278617710583154 0.03023758099352052 0.012958963282937365 0.004319654427645789 0.15982721382289417 0.1468682505399568 0.3023758099352052 0.1879049676025918 0.05183585313174946 0.038876889848812095 0.12878787878787878 0.01461038961038961 0.010281385281385282 0.016774891774891776 0.012987012987012988 0.09740259740259741 0.07034632034632035 0.34794372294372294 0.16233766233766234 0.1038961038961039 0.03463203463203463 0.10526315789473684 0.0 0.010526315789473684 0.0 0.010526315789473684 0.11578947368421053 0.1368421052631579 0.3157894736842105 0.14736842105263157 0.12631578947368421 0.031578947368421054 0.23389830508474577 0.0288135593220339 0.00423728813559322 0.011016949152542373 0.03983050847457627 0.048305084745762714 0.03898305084745763 0.31864406779661014 0.11949152542372882 0.12457627118644068 0.03220338983050847 0.13953488372093023 0.0 0.0 0.0 0.0 0.18604651162790697 0.11627906976744186 0.27906976744186046 0.16279069767441862 0.09302325581395349 0.023255813953488372 0.29315068493150687 0.03561643835616438 0.005479452054794521 0.00821917808219178 0.030136986301369864 0.043835616438356165 0.030136986301369864 0.26301369863013696 0.10684931506849316 0.14520547945205478 0.038356164383561646 0.26666666666666666 0.0 0.0 0.0 0.06666666666666667 0.06666666666666667 0.06666666666666667 0.3333333333333333 0.13333333333333333 0.06666666666666667 0.0 0.3486238532110092 0.0382262996941896 0.0030581039755351682 0.010703363914373088 0.11773700305810397 0.027522935779816515 0.010703363914373088 0.22782874617737003 0.05045871559633028 0.12996941896024464 0.035168195718654434 0.2 0.1 0.1 0.0 0.0 0.0 0.0 0.2 0.1 0.2 0.1 0.2571428571428571 0.1 0.0 0.0 0.04285714285714286 0.014285714285714285 0.04285714285714286 0.3 0.05714285714285714 0.15714285714285714 0.02857142857142857 0.42857142857142855 0.0 0.0 0.0 0.0 0.0 0.0 0.14285714285714285 0.14285714285714285 0.2857142857142857 0.0 0.40963855421686746 0.05542168674698795 0.0 0.024096385542168676 0.1614457831325301 0.012048192771084338 0.004819277108433735 0.16626506024096385 0.05060240963855422 0.08433734939759036 0.03132530120481928 0.09090909090909091 0.09090909090909091 0.09090909090909091 0.09090909090909091 0.09090909090909091 0.09090909090909091 0.09090909090909091 0.09090909090909091 0.09090909090909091 0.09090909090909091 0.09090909090909091 0.1 0.2 0.0 0.0 0.1 0.1 0.0 0.2 0.1 0.2 0.0 0.5 0.0 0.0 0.5 0.0 0.0 0.0 0.0 0.0 0.0 0.0 0.5488958990536278 0.056782334384858045 0.0 0.012618296529968454 0.19242902208201892 0.022082018927444796 0.0 0.07570977917981073 0.00946372239747634 0.06309148264984227 0.01892744479495268 </TABLE>
    </DEFINITION>
    <DEFINITION>
      <FOR>fami_educacionpadre</FOR>
      <GIVEN>fami_educacionmadre</GIVEN>
      <GIVEN>fami_tieneinternet</GIVEN>
      <TABLE>0.23577235772357724 0.024390243902439025 0.024390243902439025 0.08943089430894309 0.024390243902439025 0.08130081300813008 0.16260162601626016 0.1951219512195122 0.06504065040650407 0.08943089430894309 0.008130081300813009 0.49134487350199735 0.02929427430093209 0.015312916111850865 0.04061251664447404 0.07856191744340879 0.02929427430093209 0.016644474034620507 0.17243675099866845 0.0426098535286285 0.06990679094540612 0.013981358189081226 0.14705882352941177 0.17647058823529413 0.058823529411764705 0.0 0.0 0.08823529411764706 0.058823529411764705 0.058823529411764705 0.23529411764705882 0.17647058823529413 0.0 0.2903225806451613 0.11059907834101383 0.009216589861751152 0.059907834101382486 0.07373271889400922 0.055299539170506916 0.041474654377880185 0.19815668202764977 0.09216589861751152 0.04608294930875576 0.02304147465437788 0.003968253968253968 0.0 0.5793650793650794 0.01984126984126984 0.0 0.09523809523809523 0.21825396825396826 0.027777777777777776 0.047619047619047616 0.003968253968253968 0.003968253968253968 0.0625 0.0 0.5703125 0.0234375 0.0 0.1015625 0.1484375 0.0390625 0.046875 0.0 0.0078125 0.004524886877828055 0.0 0.00904977375565611 0.8552036199095022 0.0 0.027149321266968326 0.04524886877828054 0.04072398190045249 0.01809954751131222 0.0 0.0 0.03508771929824561 0.005847953216374269 0.011695906432748537 0.7309941520467836 0.023391812865497075 0.017543859649122806 0.05263157894736842 0.05263157894736842 0.05263157894736842 0.011695906432748537 0.005847953216374269 0.3 0.0 0.1 0.2 0.1 0.1 0.0 0.2 0.0 0.0 0.0 0.2668711656441718 0.03680981595092025 0.012269938650306749 0.046012269938650305 0.41411042944785276 0.009202453987730062 0.003067484662576687 0.1165644171779141 0.024539877300613498 0.0705521472392638 0.0 0.0061162079510703364 0.0012232415902140672 0.05871559633027523 0.03486238532110092 0.0 0.43302752293577984 0.2996941896024465 0.0709480122324159 0.08929663608562691 0.003669724770642202 0.0024464831804281344 0.012 0.0 0.0424 0.0408 0.0032 0.4048 0.1704 0.1696 0.132 0.0168 0.008 0.004935834155972359 0.0 0.08292201382033564 0.032082922013820334 0.0 0.1357354392892399 0.6268509378084897 0.039486673247778874 0.07156959526159921 0.004442250740375123 0.0019743336623889436 0.008703220191470844 0.0017406440382941688 0.06614447345517842 0.047867711053089644 0.0008703220191470844 0.14882506527415143 0.516100957354221 0.08442123585726719 0.11314186248912098 0.008703220191470844 0.0034812880765883376 0.023758099352051837 0.003599712023038157 0.05255579553635709 0.06551475881929446 0.0014398848092152627 0.1490280777537797 0.16918646508279336 0.36069114470842334 0.13246940244780417 0.02591792656587473 0.01583873290136789 0.05977203224909647 0.009174311926605505 0.030303030303030304 0.04197942730052822 0.007506255212677231 0.105643591882124 0.07478454267445094 0.4701139838754518 0.12593828190158465 0.056435918821239925 0.01834862385321101 0.007930214115781126 0.0031720856463124504 0.06423473433782712 0.05313243457573354 0.0 0.14670896114195084 0.24266455194290246 0.16019032513877876 0.3053132434575734 0.010309278350515464 0.006344171292624901 0.028169014084507043 0.005958829902491874 0.04008667388949079 0.04875406283856988 0.0027085590465872156 0.12242686890574214 0.14734561213434452 0.2573131094257855 0.30065005417118096 0.0314192849404117 0.015167930660888408 0.09326424870466321 0.025906735751295335 0.07253886010362694 0.06217616580310881 0.0051813471502590676 0.09326424870466321 0.11917098445595854 0.22279792746113988 0.10362694300518134 0.19170984455958548 0.010362694300518135 0.1644535240040858 0.01940755873340143 0.02553626149131767 0.06435137895812053 0.0296220633299285 0.05005107252298264 0.03472931562819203 0.2553626149131767 0.07660878447395301 0.24616956077630234 0.033707865168539325 0.08108108108108109 0.0 0.06756756756756757 0.02702702702702703 0.0 0.14864864864864866 0.10810810810810811 0.32432432432432434 0.12162162162162163 0.013513513513513514 0.10810810810810811 0.10855263157894737 0.03618421052631579 0.03289473684210526 0.07236842105263158 0.006578947368421052 0.0625 0.046052631578947366 0.23684210526315788 0.11513157894736842 0.11842105263157894 0.16447368421052633 </TABLE>
    </DEFINITION>
    <DEFINITION>
      <FOR>fami_estratovivienda</FOR>
      <GIVEN>fami_tienecomputador</GIVEN>
      <GIVEN>fami_tienelavadora</GIVEN>
      <TABLE>0.6269610691458455 0.3230679837303893 0.04677513073794306 0.002905287623474724 0.0002905287623474724 0.0 0.4335142469470828 0.43012211668928085 0.11431478968792401 0.016282225237449117 0.0047489823609226595 0.0010176390773405698 0.38776796973518285 0.4457755359394704 0.14880201765447668 0.01639344262295082 0.0012610340479192938 0.0 0.20054149939314722 0.36476519465969565 0.2662683222855009 0.09270843058537952 0.045280552702828866 0.030436000373447857 </TABLE>
    </DEFINITION>
    <DEFINITION>
      <FOR>fami_personashogar</FOR>
      <GIVEN>fami_cuartoshogar</GIVEN>
      <GIVEN>fami_estratovivienda</GIVEN>
      <TABLE>0.2391304347826087 0.05217391304347826 0.05652173913043478 0.034782608695652174 0.017391304347826087 0.08695652173913043 0.11739130434782609 0.021739130434782608 0.15217391304347827 0.18695652173913044 0.030434782608695653 0.004347826086956522 0.304 0.084 0.048 0.02 0.004 0.04 0.1 0.004 0.24 0.132 0.024 0.0 0.4013605442176871 0.08843537414965986 0.006802721088435374 0.006802721088435374 0.0 0.013605442176870748 0.05442176870748299 0.006802721088435374 0.20408163265306123 0.19047619047619047 0.027210884353741496 0.0 0.37777777777777777 0.1111111111111111 0.022222222222222223 0.022222222222222223 0.0 0.044444444444444446 0.044444444444444446 0.022222222222222223 0.13333333333333333 0.2 0.022222222222222223 0.0 0.41935483870967744 0.16129032258064516 0.0 0.0 0.03225806451612903 0.0 0.0 0.0 0.3225806451612903 0.0 0.06451612903225806 0.0 0.5789473684210527 0.15789473684210525 0.0 0.0 0.0 0.0 0.0 0.0 0.15789473684210525 0.05263157894736842 0.05263157894736842 0.0 0.2560646900269542 0.20889487870619947 0.014824797843665768 0.01078167115902965 0.02021563342318059 0.04043126684636118 0.09299191374663072 0.006738544474393531 0.18328840970350405 0.12533692722371967 0.03369272237196765 0.006738544474393531 0.316950852557673 0.23570712136409228 0.011033099297893681 0.006018054162487462 0.007021063189568706 0.02708124373119358 0.055165496489468405 0.0020060180541624875 0.1815446339017051 0.10531594784353059 0.048144433299899696 0.004012036108324975 0.34364820846905536 0.3501628664495114 0.003257328990228013 0.0 0.0016286644951140066 0.008143322475570033 0.029315960912052116 0.004885993485342019 0.1465798045602606 0.06026058631921824 0.050488599348534204 0.0016286644951140066 0.41735537190082644 0.384297520661157 0.0 0.0 0.024793388429752067 0.004132231404958678 0.008264462809917356 0.0 0.09090909090909091 0.028925619834710745 0.04132231404958678 0.0 0.3655913978494624 0.40860215053763443 0.0 0.0 0.0 0.0 0.0 0.0 0.12903225806451613 0.03225806451612903 0.06451612903225806 0.0 0.5094339622641509 0.39622641509433965 0.0 0.0 0.0 0.0 0.0 0.0 0.03773584905660377 0.0 0.05660377358490566 0.0 0.0 0.0 0.3333333333333333 0.6666666666666666 0.0 0.0 0.0 0.0 0.0 0.0 0.0 0.0 0.0 0.0 0.3333333333333333 0.6666666666666666 0.0 0.0 0.0 0.0 0.0 0.0 0.0 0.0 0.0 0.0 0.5 0.0 0.0 0.0 0.0 0.5 0.0 0.0 0.0 0.0 0.08333333333333333 0.08333333333333333 0.08333333333333333 0.08333333333333333 0.08333333333333333 0.08333333333333333 0.08333333333333333 0.08333333333333333 0.08333333333333333 0.08333333333333333 0.08333333333333333 0.08333333333333333 0.0 0.0 0.0 1.0 0.0 0.0 0.0 0.0 0.0 0.0 0.0 0.0 0.08333333333333333 0.08333333333333333 0.08333333333333333 0.08333333333333333 0.08333333333333333 0.08333333333333333 0.08333333333333333 0.08333333333333333 0.08333333333333333 0.08333333333333333 0.08333333333333333 0.08333333333333333 0.16378964271376958 0.3412284223203533 0.0024086712163789645 0.0004014452027298274 0.08390204737053392 0.002007226013649137 0.011240465676435166 0.002007226013649137 0.06142111601766359 0.01686069851465275 0.3095142513046969 0.005218787635487756 0.11451292246520875 0.2990059642147117 0.0 0.0 0.14791252485089462 0.0011928429423459245 0.002783300198807157 0.0 0.02743538767395626 0.005964214711729622 0.3976143141153082 0.0035785288270377734 0.05549845837615622 0.2065775950668037 0.0 0.0 0.24049331963001028 0.0 0.0010277492291880781 0.0 0.018499486125385406 0.0010277492291880781 0.4696813977389517 0.007194244604316547 0.01858736059479554 0.10408921933085502 0.0 0.0037174721189591076 0.3643122676579926 0.0 0.0 0.0 0.0 0.0 0.4944237918215613 0.01486988847583643 0.007936507936507936 0.06349206349206349 0.0 0.0 0.38095238095238093 0.0 0.0 0.0 0.0 0.0 0.5396825396825397 0.007936507936507936 0.0 0.0375 0.0 0.0 0.3375 0.0 0.0 0.0 0.0 0.0 0.6125 0.0125 0.0 0.0 0.25 0.25 0.0 0.0 0.0 0.25 0.0 0.25 0.0 0.0 0.0 0.0 0.0 0.0 0.0 0.5 0.0 0.25 0.0 0.25 0.0 0.0 0.0 0.0 0.0 0.5 0.0 0.5 0.0 0.0 0.0 0.0 0.0 0.0 0.0 0.0 0.0 0.0 0.0 1.0 0.0 0.0 0.0 0.0 0.0 0.0 0.08333333333333333 0.08333333333333333 0.08333333333333333 0.08333333333333333 0.08333333333333333 0.08333333333333333 0.08333333333333333 0.08333333333333333 0.08333333333333333 0.08333333333333333 0.08333333333333333 0.08333333333333333 0.08333333333333333 0.08333333333333333 0.08333333333333333 0.08333333333333333 0.08333333333333333 0.08333333333333333 0.08333333333333333 0.08333333333333333 0.08333333333333333 0.08333333333333333 0.08333333333333333 0.08333333333333333 0.0 0.0 0.1111111111111111 0.2222222222222222 0.0 0.1111111111111111 0.3333333333333333 0.2222222222222222 0.0 0.0 0.0 0.0 0.0 0.0 0.25 0.125 0.0 0.25 0.25 0.0 0.0 0.125 0.0 0.0 0.0 0.0 0.25 0.25 0.0 0.0 0.0 0.0 0.5 0.0 0.0 0.0 0.0 0.0 0.0 0.0 0.0 0.0 0.0 0.0 1.0 0.0 0.0 0.0 0.08333333333333333 0.08333333333333333 0.08333333333333333 0.08333333333333333 0.08333333333333333 0.08333333333333333 0.08333333333333333 0.08333333333333333 0.08333333333333333 0.08333333333333333 0.08333333333333333 0.08333333333333333 0.08333333333333333 0.08333333333333333 0.08333333333333333 0.08333333333333333 0.08333333333333333 0.08333333333333333 0.08333333333333333 0.08333333333333333 0.08333333333333333 0.08333333333333333 0.08333333333333333 0.08333333333333333 0.0641025641025641 0.038461538461538464 0.0641025641025641 0.10256410256410256 0.01282051282051282 0.08974358974358974 0.1794871794871795 0.05128205128205128 0.2692307692307692 0.11538461538461539 0.01282051282051282 0.0 0.014084507042253521 0.056338028169014086 0.08450704225352113 0.056338028169014086 0.014084507042253521 0.04225352112676056 0.18309859154929578 0.0 0.30985915492957744 0.22535211267605634 0.014084507042253521 0.0 0.13953488372093023 0.046511627906976744 0.046511627906976744 0.046511627906976744 0.0 0.046511627906976744 0.20930232558139536 0.0 0.2558139534883721 0.16279069767441862 0.046511627906976744 0.0 0.16666666666666666 0.0 0.16666666666666666 0.16666666666666666 0.0 0.0 0.0 0.0 0.5 0.0 0.0 0.0 0.0 0.2 0.0 0.0 0.0 0.0 0.2 0.0 0.2 0.4 0.0 0.0 0.0 0.3333333333333333 0.0 0.0 0.0 0.0 0.0 0.0 0.6666666666666666 0.0 0.0 0.0 0.034482758620689655 0.034482758620689655 0.06896551724137931 0.13793103448275862 0.0 0.034482758620689655 0.06896551724137931 0.034482758620689655 0.13793103448275862 0.41379310344827586 0.034482758620689655 0.0 0.02702702702702703 0.05405405405405406 0.08108108108108109 0.05405405405405406 0.0 0.16216216216216217 0.21621621621621623 0.02702702702702703 0.0 0.3783783783783784 0.0 0.0 0.0 0.1111111111111111 0.2222222222222222 0.0 0.0 0.1111111111111111 0.2222222222222222 0.0 0.0 0.3333333333333333 0.0 0.0 0.0 0.0 0.3333333333333333 0.0 0.0 0.0 0.3333333333333333 0.0 0.3333333333333333 0.0 0.0 0.0 0.0 0.0 1.0 0.0 0.0 0.0 0.0 0.0 0.0 0.0 0.0 0.0 0.0 0.0 0.0 0.0 0.0 0.0 0.0 0.0 0.5 0.5 0.0 0.0 0.2775387263339071 0.30206540447504304 0.009036144578313253 0.0021514629948364886 0.013769363166953529 0.01333907056798623 0.025817555938037865 0.0030120481927710845 0.1544750430292599 0.06368330464716007 0.132960413080895 0.0021514629948364886 0.2323750855578371 0.41718001368925395 0.00034223134839151266 0.00034223134839151266 0.019507186858316223 0.004791238877481177 0.012320328542094456 0.00034223134839151266 0.08761122518822724 0.03764544832306639 0.18548939082819987 0.002053388090349076 0.18724870763928778 0.4784606547960942 0.0005743825387708214 0.0 0.013210798391728892 0.0011487650775416428 0.004595060310166571 0.0 0.05686387133831131 0.012062033314187249 0.24181504882251578 0.00402067777139575 0.1417004048582996 0.5647773279352226 0.0 0.0 0.024291497975708502 0.0 0.0 0.0 0.032388663967611336 0.0 0.23684210526315788 0.0 0.08298755186721991 0.5726141078838174 0.0 0.0 0.03319502074688797 0.0 0.0 0.0 0.008298755186721992 0.0 0.3029045643153527 0.0 0.08771929824561403 0.6257309941520468 0.0 0.0 0.017543859649122806 0.0 0.0 0.0 0.0 0.0 0.26900584795321636 0.0 0.045454545454545456 0.1853146853146853 0.0034965034965034965 0.0 0.3006993006993007 0.0034965034965034965 0.0 0.0 0.03146853146853147 0.01048951048951049 0.3181818181818182 0.10139860139860139 0.06951871657754011 0.11764705882352941 0.0 0.0 0.40641711229946526 0.0053475935828877 0.0 0.0 0.0106951871657754 0.0053475935828877 0.29411764705882354 0.09090909090909091 0.09803921568627451 0.0784313725490196 0.0 0.0 0.6078431372549019 0.0 0.0 0.0 0.0 0.0 0.13725490196078433 0.0784313725490196 0.0 0.125 0.0 0.0 0.1875 0.0 0.0 0.0 0.0625 0.0 0.3125 0.3125 0.0 0.0 0.0 0.0 0.75 0.0 0.0 0.0 0.0 0.0 0.0 0.25 0.0 0.0 0.0 0.0 0.0 0.0 0.0 0.0 0.0 0.0 1.0 0.0 </TABLE>
    </DEFINITION>
    <DEFINITION>
      <FOR>fami_tieneautomovil</FOR>
      <GIVEN>fami_estratovivienda</GIVEN>
      <GIVEN>fami_tienecomputador</GIVEN>
      <GIVEN>fami_tienelavadora</GIVEN>
      <TABLE>0.9819277108433735 0.018072289156626505 0.9225352112676056 0.07746478873239436 0.9284552845528455 0.07154471544715447 0.8496275605214153 0.15037243947858472 0.9730215827338129 0.02697841726618705 0.8982649842271293 0.10173501577287067 0.9094766619519095 0.09052333804809053 0.7624776042999744 0.2375223957000256 0.9565217391304348 0.043478260869565216 0.8100890207715133 0.18991097922848665 0.8559322033898306 0.1440677966101695 0.5897615708274895 0.4102384291725105 1.0 0.0 0.6041666666666666 0.3958333333333333 0.8461538461538461 0.15384615384615385 0.34944612286002014 0.6505538771399798 1.0 0.0 0.5 0.5 1.0 0.0 0.14432989690721648 0.8556701030927835 0.5 0.5 0.0 1.0 0.5 0.5 0.03067484662576687 0.9693251533742331 </TABLE>
    </DEFINITION>
    <DEFINITION>
      <FOR>fami_tienecomputador</FOR>
      <GIVEN>fami_cuartoshogar</GIVEN>
      <GIVEN>fami_tienelavadora</GIVEN>
      <TABLE>0.6271186440677966 0.3728813559322034 0.1672185430463576 0.8327814569536424 0.6626984126984127 0.3373015873015873 0.16450603486812695 0.835493965131873 0.0 1.0 0.0 1.0 0.699468085106383 0.300531914893617 0.26893758932825157 0.7310624106717485 0.0 1.0 0.1 0.9 0.5 0.5 0.16666666666666666 0.8333333333333334 0.6428571428571429 0.35714285714285715 0.2073170731707317 0.7926829268292683 0.6842105263157895 0.3157894736842105 0.1774193548387097 0.8225806451612904 0.6691218130311615 0.33087818696883853 0.19827023498694518 0.8017297650130548 0.7373417721518988 0.2626582278481013 0.37554585152838427 0.6244541484716157 </TABLE>
    </DEFINITION>
    <DEFINITION>
      <FOR>fami_tieneinternet</FOR>
      <GIVEN>fami_estratovivienda</GIVEN>
      <GIVEN>fami_tienecomputador</GIVEN>
      <GIVEN>fami_tienelavadora</GIVEN>
      <TABLE>0.933271547729379 0.06672845227062095 0.8278560250391236 0.17214397496087636 0.416260162601626 0.583739837398374 0.2672253258845438 0.7327746741154563 0.8965827338129496 0.10341726618705036 0.7026813880126183 0.2973186119873817 0.30834512022630833 0.6916548797736917 0.14717174302533914 0.8528282569746609 0.7204968944099379 0.2795031055900621 0.5252225519287834 0.47477744807121663 0.22033898305084745 0.7796610169491526 0.07468443197755961 0.9253155680224404 0.7 0.3 0.4166666666666667 0.5833333333333334 0.19230769230769232 0.8076923076923077 0.026183282980866064 0.973816717019134 1.0 0.0 0.2857142857142857 0.7142857142857143 0.5 0.5 0.02268041237113402 0.977319587628866 0.5 0.5 0.0 1.0 0.5 0.5 0.006134969325153374 0.9938650306748467 </TABLE>
    </DEFINITION>
    <DEFINITION>
      <FOR>fami_tienelavadora</FOR>
      <GIVEN>fami_cuartoshogar</GIVEN>
      <TABLE>0.1634349030470914 0.8365650969529086 0.18387449835826342 0.8161255016417366 0.25 0.75 0.3495506662534862 0.6504493337465138 0.09090909090909091 0.9090909090909091 0.18181818181818182 0.8181818181818182 0.20388349514563106 0.7961165048543689 0.2345679012345679 0.7654320987654321 0.22361586215634105 0.7763841378436589 0.5798165137614679 0.42018348623853213 </TABLE>
    </DEFINITION>
    <DEFINITION>
      <FOR>global</FOR>
      <GIVEN>cole_jornada</GIVEN>
      <GIVEN>cole_naturaleza</GIVEN>
      <GIVEN>fami_educacionmadre</GIVEN>
      <TABLE>0.005420054200542005 0.037940379403794036 0.13821138211382114 0.8184281842818428 0.0 0.019230769230769232 0.17307692307692307 0.8076923076923077 0.25 0.25 0.25 0.25 0.0 0.14285714285714285 0.21428571428571427 0.6428571428571429 0.0 0.027972027972027972 0.04895104895104895 0.9230769230769231 0.06666666666666667 0.06666666666666667 0.3333333333333333 0.5333333333333333 0.0 0.3333333333333333 0.0 0.6666666666666666 0.00980392156862745 0.09803921568627451 0.3431372549019608 0.5490196078431373 0.0 0.0 0.21052631578947367 0.7894736842105263 0.011494252873563218 0.05747126436781609 0.26436781609195403 0.6666666666666666 0.0 0.038461538461538464 0.15384615384615385 0.8076923076923077 0.0958904109589041 0.2191780821917808 0.3561643835616438 0.3287671232876712 0.0 0.3076923076923077 0.46153846153846156 0.23076923076923078 0.14705882352941177 0.38235294117647056 0.29411764705882354 0.17647058823529413 0.2698412698412698 0.4126984126984127 0.23809523809523808 0.07936507936507936 0.0 0.125 0.25 0.625 0.25 0.34146341463414637 0.2865853658536585 0.12195121951219512 0.27606177606177607 0.34942084942084944 0.27606177606177607 0.09845559845559845 0.1796875 0.3307291666666667 0.2864583333333333 0.203125 0.22929936305732485 0.3503184713375796 0.2898089171974522 0.1305732484076433 0.125 0.30357142857142855 0.30357142857142855 0.26785714285714285 0.13333333333333333 0.2 0.4666666666666667 0.2 0.042986425339366516 0.11538461538461539 0.2669683257918552 0.5746606334841629 0.041666666666666664 0.14583333333333334 0.22916666666666666 0.5833333333333334 0.4 0.28 0.28 0.04 0.14285714285714285 0.0 0.35714285714285715 0.5 0.012048192771084338 0.07228915662650602 0.1566265060240964 0.7590361445783133 0.2361111111111111 0.4305555555555556 0.19444444444444445 0.1388888888888889 0.4098360655737705 0.2786885245901639 0.14754098360655737 0.16393442622950818 0.12151898734177215 0.21012658227848102 0.3189873417721519 0.3493670886075949 0.25675675675675674 0.24324324324324326 0.2972972972972973 0.20270270270270271 0.06535947712418301 0.1503267973856209 0.3137254901960784 0.47058823529411764 0.13846153846153847 0.1076923076923077 0.4307692307692308 0.3230769230769231 0.03645007923930269 0.13946117274167988 0.35340729001584786 0.4706814580031696 0.046296296296296294 0.1574074074074074 0.2962962962962963 0.5 0.3697478991596639 0.2184873949579832 0.2857142857142857 0.12605042016806722 0.2138728323699422 0.28901734104046245 0.2543352601156069 0.24277456647398843 0.022727272727272728 0.06818181818181818 0.3409090909090909 0.5681818181818182 0.18931297709923664 0.3145038167938931 0.3145038167938931 0.18167938931297709 0.21124729632299927 0.334534967555876 0.3143475126171593 0.13987022350396539 0.0901611244429208 0.25265683921837506 0.3500171408981831 0.30716489544052106 0.13317757009345793 0.3037383177570093 0.3382009345794392 0.22488317757009346 0.052556818181818184 0.16619318181818182 0.3309659090909091 0.4502840909090909 0.0502283105022831 0.2009132420091324 0.3698630136986301 0.3789954337899543 0.19230769230769232 0.23076923076923078 0.46153846153846156 0.11538461538461539 0.0 0.5 0.0 0.5 0.25 0.25 0.25 0.25 0.8333333333333334 0.0 0.0 0.16666666666666666 0.0 0.75 0.25 0.0 0.3333333333333333 0.23809523809523808 0.2857142857142857 0.14285714285714285 0.25 0.55 0.2 0.0 0.2857142857142857 0.42857142857142855 0.18571428571428572 0.1 0.3958333333333333 0.3958333333333333 0.16666666666666666 0.041666666666666664 0.23529411764705882 0.23529411764705882 0.29411764705882354 0.23529411764705882 0.3333333333333333 0.3333333333333333 0.2222222222222222 0.1111111111111111 0.23076923076923078 0.3076923076923077 0.38461538461538464 0.07692307692307693 0.4 0.2 0.4 0.0 0.581081081081081 0.22972972972972974 0.14864864864864866 0.04054054054054054 0.6060606060606061 0.2727272727272727 0.06060606060606061 0.06060606060606061 0.3333333333333333 0.3333333333333333 0.3333333333333333 0.0 0.47017543859649125 0.3543859649122807 0.12982456140350876 0.0456140350877193 0.5325443786982249 0.3106508875739645 0.14201183431952663 0.014792899408284023 0.3738738738738739 0.33783783783783783 0.22072072072072071 0.06756756756756757 0.4383561643835616 0.3378995433789954 0.1735159817351598 0.0502283105022831 0.23529411764705882 0.47058823529411764 0.17647058823529413 0.11764705882352941 0.3333333333333333 0.16666666666666666 0.16666666666666666 0.3333333333333333 0.0 0.2 0.0 0.8 0.0 0.0 1.0 0.0 0.625 0.25 0.125 0.0 0.6 0.2 0.2 0.0 0.3333333333333333 0.3333333333333333 0.0 0.3333333333333333 0.4444444444444444 0.4 0.13333333333333333 0.022222222222222223 0.5769230769230769 0.3076923076923077 0.07692307692307693 0.038461538461538464 0.3394495412844037 0.3944954128440367 0.2018348623853211 0.06422018348623854 0.41025641025641024 0.358974358974359 0.1794871794871795 0.05128205128205128 0.2857142857142857 0.23809523809523808 0.38095238095238093 0.09523809523809523 0.5 0.125 0.25 0.125 0.5625 0.25 0.0625 0.125 0.0 0.0 1.0 0.0 0.65 0.27 0.06 0.02 0.532258064516129 0.27419354838709675 0.1935483870967742 0.0 0.0 1.0 0.0 0.0 0.6107784431137725 0.25449101796407186 0.12275449101796407 0.011976047904191617 0.5443786982248521 0.3234714003944773 0.11834319526627218 0.013806706114398421 0.38028169014084506 0.3732394366197183 0.2112676056338028 0.035211267605633804 0.4521276595744681 0.39893617021276595 0.13297872340425532 0.015957446808510637 0.3333333333333333 0.3333333333333333 0.16666666666666666 0.16666666666666666 0.5 0.25 0.25 0.0 0.0 0.5 0.0 0.5 0.25 0.25 0.25 0.25 0.5 0.5 0.0 0.0 0.25 0.25 0.25 0.25 0.25 0.25 0.25 0.25 0.3125 0.25 0.4375 0.0 0.38461538461538464 0.3076923076923077 0.15384615384615385 0.15384615384615385 0.16666666666666666 0.3333333333333333 0.4166666666666667 0.08333333333333333 0.23076923076923078 0.46153846153846156 0.15384615384615385 0.15384615384615385 0.0 0.5 0.0 0.5 0.0 0.3333333333333333 0.5 0.16666666666666666 0.0625 0.16666666666666666 0.4791666666666667 0.2916666666666667 0.05 0.15 0.25 0.55 0.16666666666666666 0.5 0.2777777777777778 0.05555555555555555 0.18181818181818182 0.3181818181818182 0.3181818181818182 0.18181818181818182 0.0 0.3333333333333333 0.3333333333333333 0.3333333333333333 0.17627118644067796 0.31864406779661014 0.3423728813559322 0.16271186440677965 0.2185430463576159 0.3543046357615894 0.2913907284768212 0.1357615894039735 0.10900473933649289 0.3048973143759874 0.3617693522906793 0.22432859399684044 0.16953316953316952 0.3095823095823096 0.343980343980344 0.1769041769041769 0.05154639175257732 0.15463917525773196 0.4536082474226804 0.3402061855670103 0.0 0.25 0.45 0.3 </TABLE>
    </DEFINITION>
  </NETWORK>
</BIF>
